{"timestamp": "2026-06-13_15-44", "architecture": "2-64-1", "activation": "tanh", "final_loss": 0.0037369045894593, "config": {"k": 1.0, "m": 1.0, "dt": 0.05, "n_trials": 200, "n_steps": 200, "lr": 0.001, "epochs": 5000}, "weights": {"0.weight": [[-0.21113194525241852, -0.27046769857406616], [0.5056195259094238, -0.5109096169471741], [-0.537264883518219, 0.31168031692504883], [-0.6114858984947205, 0.3736543357372284], [-0.5341129899024963, 0.21280337870121002], [-0.42183148860931396, 0.43260249495506287], [-0.29037240147590637, -0.2983037233352661], [-0.20354293286800385, -0.400685578584671], [-0.6161736845970154, 0.3343951404094696], [0.36852890253067017, -0.11589355766773224], [0.5587917566299438, -0.10680317133665085], [0.19138318300247192, -0.41323524713516235], [-0.20721155405044556, -0.328235387802124], [0.2340371310710907, 0.5744073390960693], [0.05056300386786461, 0.19176028668880463], [-0.11421085894107819, 0.02346591278910637], [-0.23735760152339935, -0.5087611079216003], [0.2547623813152313, -0.13777922093868256], [0.18574988842010498, -0.3274419903755188], [-0.5613411068916321, -0.21433456242084503], [-0.15538465976715088, 0.5903173685073853], [-0.17164838314056396, -0.5058391690254211], [0.3634560704231262, 0.10847565531730652], [-0.3010186553001404, -0.3980852961540222], [0.5335748195648193, 0.6029913425445557], [-0.5347301959991455, -0.02085353061556816], [0.0906873568892479, 0.05532512068748474], [-0.4821459650993347, 0.7289379239082336], [-0.09958545118570328, -0.3247110843658447], [0.3315364122390747, -0.45010823011398315], [-0.21002334356307983, -0.06542759388685226], [-0.45079249143600464, -0.03308308869600296], [0.28450408577919006, -0.08806591480970383], [0.29908105731010437, -0.18772770464420319], [-0.18406137824058533, 0.23274843394756317], [-0.5864048004150391, 0.4098818898200989], [0.5794717073440552, 0.2543945908546448], [-0.6226403713226318, 0.46359166502952576], [-0.5128678679466248, 0.1683802455663681], [-0.2876303791999817, -0.38062283396720886], [0.5620534420013428, -0.6377840638160706], [0.10960681736469269, -0.01753220707178116], [-0.4557262659072876, -0.2213481068611145], [0.3194400668144226, -0.10500620305538177], [0.47113558650016785, -0.6448870301246643], [0.40966352820396423, 0.4220573306083679], [0.552455484867096, 0.11472253501415253], [0.1953485608100891, 0.502861499786377], [-0.21236184239387512, 0.12605802714824677], [-0.22068561613559723, 0.1965964138507843], [0.6483909487724304, 0.015288920141756535], [0.1425357609987259, 0.4276198148727417], [-0.542325496673584, 0.1469690203666687], [-0.06142985820770264, -0.4994336664676666], [-0.541516125202179, -0.49028387665748596], [0.11120983213186264, -0.4036761522293091], [-0.22459089756011963, -0.03816530108451843], [0.31842634081840515, -0.21123534440994263], [0.42788633704185486, -0.2253926694393158], [0.6362630724906921, -0.20060275495052338], [-0.14331525564193726, -0.04905626177787781], [0.8856431841850281, -0.012612449936568737], [-0.5188700556755066, -0.1329638808965683], [0.4898088872432709, -0.0431843139231205]], "0.bias": [0.5171322226524353, -0.49601149559020996, 0.12333584576845169, 0.5605384707450867, -0.04079674929380417, -0.6550151109695435, 0.45545995235443115, 0.5740756988525391, -0.538349449634552, -0.27479034662246704, 0.6301161646842957, -0.16882584989070892, 0.14908915758132935, 0.6511818766593933, -0.16347134113311768, 0.5074744820594788, -0.5582508444786072, 0.08655843138694763, 0.6050897836685181, 0.17451119422912598, 0.0343935526907444, -0.5547526478767395, -0.2300920933485031, -0.6241450905799866, 0.18902601301670074, -0.5453956127166748, 0.08672367036342621, -0.14650695025920868, -0.6234903335571289, 0.025285473093390465, 0.5850500464439392, -0.48829203844070435, 0.19681228697299957, 0.017750222235918045, 0.46186363697052, 0.572598397731781, 0.2876596450805664, 0.05256369337439537, 0.7266642451286316, -0.4780820310115814, -0.30015870928764343, 0.15684548020362854, 0.5773674249649048, 0.3243122100830078, 0.5813581347465515, 0.13963423669338226, 0.09974697977304459, -0.6036979556083679, 0.09753040224313736, 0.4417164623737335, -0.76778244972229, -0.08354105800390244, -0.6536914110183716, 0.6111551523208618, 0.9780486226081848, 0.33717086911201477, 0.1326753795146942, -0.3600619435310364, 0.7090965509414673, -0.8752636313438416, 0.014618674293160439, -1.1898143291473389, 0.36891818046569824, 0.3597618043422699], "2.weight": [[-0.0009911636589094996, 0.14511843025684357, 0.004529963713139296, 0.03197622299194336, -0.0019404563354328275, -0.09837153553962708, -0.12401509284973145, 0.0604223795235157, 0.0013616069918498397, 0.10993414372205734, 0.11428622901439667, 0.08083946257829666, -0.11809616535902023, 0.10784745961427689, -0.03030441515147686, -0.08625007420778275, -0.0029163025319576263, 0.12304437905550003, -0.04586472734808922, 0.0700896605849266, -0.12258107960224152, -0.0012212913716211915, 0.12800057232379913, -0.05134313553571701, -0.08184198290109634, -0.1995221972465515, 0.10938522964715958, 0.08803453296422958, -0.09959913045167923, 0.057123251259326935, -0.13897597789764404, -0.05280120670795441, 0.0546678863465786, 0.12533487379550934, -0.07751376181840897, 0.0005845026462338865, 0.11595623940229416, 0.009342612698674202, -0.18287789821624756, -0.13662545382976532, -0.0655636265873909, 0.05990298464894295, -0.09885435551404953, 0.057074129581451416, 0.02036835439503193, -0.001341249793767929, 0.09158151596784592, 0.05140248313546181, -0.022476496174931526, -0.02195383980870247, 0.1126173809170723, 0.148847296833992, -0.157675102353096, -0.0696965828537941, -0.04218926280736923, 0.06894730776548386, -0.1432495415210724, 0.03074999339878559, 0.05669562518596649, 0.042459968477487564, -0.20657096803188324, 0.06529871374368668, -0.07496453821659088, 0.08671413362026215]], "2.bias": [0.08885085582733154]}}